digraph Tree {
node [shape=box, style="filled, rounded", color="black", fontname=helvetica] ;
edge [fontname=helvetica] ;
0 [label="petal length <= 2.45\nmse = 0.581\nsamples = 120\nvalue = 1.235", fillcolor="#f0b68c"] ;
1 [label="sepal width <= 3.25\nmse = 0.01\nsamples = 38\nvalue = 0.242", fillcolor="#fefaf8"] ;
0 -> 1 [labeldistance=2.5, labelangle=45, headlabel="True"] ;
2 [label="mse = 0.005\nsamples = 13\nvalue = 0.177", fillcolor="#ffffff"] ;
1 -> 2 ;
3 [label="mse = 0.01\nsamples = 25\nvalue = 0.276", fillcolor="#fef8f4"] ;
1 -> 3 ;
4 [label="petal length <= 4.75\nmse = 0.177\nsamples = 82\nvalue = 1.695", fillcolor="#e9965a"] ;
0 -> 4 [labeldistance=2.5, labelangle=-45, headlabel="False"] ;
5 [label="mse = 0.035\nsamples = 36\nvalue = 1.308", fillcolor="#efb184"] ;
4 -> 5 ;
6 [label="mse = 0.08\nsamples = 46\nvalue = 1.998", fillcolor="#e58139"] ;
4 -> 6 ;
}